digraph Tree {
node [shape=box] ;
0 [label="X[12] <= 0.1418\ngini = 0.5\nsamples = 3168\nvalue = [1584, 1584]"] ;
1 [label="X[5] <= 0.0713\ngini = 0.103\nsamples = 1616\nvalue = [1528, 88]"] ;
0 -> 1 [labeldistance=2.5, labelangle=45, headlabel="True"] ;
2 [label="X[12] <= 0.1298\ngini = 0.4651\nsamples = 87\nvalue = [32, 55]"] ;
1 -> 2 ;
3 [label="X[9] <= 0.4381\ngini = 0.4383\nsamples = 37\nvalue = [25, 12]"] ;
2 -> 3 ;
4 [label="X[17] <= 0.4219\ngini = 0.1528\nsamples = 24\nvalue = [22, 2]"] ;
3 -> 4 ;
5 [label="gini = 0.0\nsamples = 1\nvalue = [0, 1]"] ;
4 -> 5 ;
6 [label="X[18] <= 7.3984\ngini = 0.0832\nsamples = 23\nvalue = [22, 1]"] ;
4 -> 6 ;
7 [label="gini = 0.0\nsamples = 22\nvalue = [22, 0]"] ;
6 -> 7 ;
8 [label="gini = 0.0\nsamples = 1\nvalue = [0, 1]"] ;
6 -> 8 ;
9 [label="X[18] <= 4.0864\ngini = 0.355\nsamples = 13\nvalue = [3, 10]"] ;
3 -> 9 ;
10 [label="gini = 0.0\nsamples = 9\nvalue = [0, 9]"] ;
9 -> 10 ;
11 [label="X[1] <= 0.0698\ngini = 0.375\nsamples = 4\nvalue = [3, 1]"] ;
9 -> 11 ;
12 [label="gini = 0.0\nsamples = 3\nvalue = [3, 0]"] ;
11 -> 12 ;
13 [label="gini = 0.0\nsamples = 1\nvalue = [0, 1]"] ;
11 -> 13 ;
14 [label="X[10] <= 0.1998\ngini = 0.2408\nsamples = 50\nvalue = [7, 43]"] ;
2 -> 14 ;
15 [label="X[12] <= 0.1418\ngini = 0.1049\nsamples = 36\nvalue = [2, 34]"] ;
14 -> 15 ;
16 [label="X[12] <= 0.1312\ngini = 0.0555\nsamples = 35\nvalue = [1, 34]"] ;
15 -> 16 ;
17 [label="X[8] <= 0.8984\ngini = 0.4444\nsamples = 3\nvalue = [1, 2]"] ;
16 -> 17 ;
18 [label="gini = 0.0\nsamples = 2\nvalue = [0, 2]"] ;
17 -> 18 ;
19 [label="gini = 0.0\nsamples = 1\nvalue = [1, 0]"] ;
17 -> 19 ;
20 [label="gini = 0.0\nsamples = 32\nvalue = [0, 32]"] ;
16 -> 20 ;
21 [label="gini = 0.0\nsamples = 1\nvalue = [1, 0]"] ;
15 -> 21 ;
22 [label="X[3] <= 0.1662\ngini = 0.4592\nsamples = 14\nvalue = [5, 9]"] ;
14 -> 22 ;
23 [label="X[1] <= 0.0599\ngini = 0.32\nsamples = 5\nvalue = [4, 1]"] ;
22 -> 23 ;
24 [label="gini = 0.0\nsamples = 4\nvalue = [4, 0]"] ;
23 -> 24 ;
25 [label="gini = 0.0\nsamples = 1\nvalue = [0, 1]"] ;
23 -> 25 ;
26 [label="X[5] <= 0.0383\ngini = 0.1975\nsamples = 9\nvalue = [1, 8]"] ;
22 -> 26 ;
27 [label="gini = 0.0\nsamples = 1\nvalue = [1, 0]"] ;
26 -> 27 ;
28 [label="gini = 0.0\nsamples = 8\nvalue = [0, 8]"] ;
26 -> 28 ;
29 [label="X[12] <= 0.1341\ngini = 0.0422\nsamples = 1529\nvalue = [1496, 33]"] ;
1 -> 29 ;
30 [label="X[13] <= 0.0104\ngini = 0.013\nsamples = 1375\nvalue = [1366, 9]"] ;
29 -> 30 ;
31 [label="gini = 0.0\nsamples = 1\nvalue = [0, 1]"] ;
30 -> 31 ;
32 [label="X[1] <= 0.0973\ngini = 0.0116\nsamples = 1374\nvalue = [1366, 8]"] ;
30 -> 32 ;
33 [label="X[13] <= 0.0154\ngini = 0.0101\nsamples = 1373\nvalue = [1366, 7]"] ;
32 -> 33 ;
34 [label="X[5] <= 0.0991\ngini = 0.32\nsamples = 15\nvalue = [12, 3]"] ;
33 -> 34 ;
35 [label="gini = 0.0\nsamples = 3\nvalue = [0, 3]"] ;
34 -> 35 ;
36 [label="gini = 0.0\nsamples = 12\nvalue = [12, 0]"] ;
34 -> 36 ;
37 [label="X[4] <= 0.1416\ngini = 0.0059\nsamples = 1358\nvalue = [1354, 4]"] ;
33 -> 37 ;
38 [label="X[19] <= 0.1942\ngini = 0.1975\nsamples = 9\nvalue = [8, 1]"] ;
37 -> 38 ;
39 [label="gini = 0.0\nsamples = 8\nvalue = [8, 0]"] ;
38 -> 39 ;
40 [label="gini = 0.0\nsamples = 1\nvalue = [0, 1]"] ;
38 -> 40 ;
41 [label="X[9] <= 0.7787\ngini = 0.0044\nsamples = 1349\nvalue = [1346, 3]"] ;
37 -> 41 ;
42 [label="X[5] <= 0.0788\ngini = 0.003\nsamples = 1330\nvalue = [1328, 2]"] ;
41 -> 42 ;
43 [label="X[9] <= 0.5364\ngini = 0.0768\nsamples = 25\nvalue = [24, 1]"] ;
42 -> 43 ;
44 [label="gini = 0.0\nsamples = 23\nvalue = [23, 0]"] ;
43 -> 44 ;
45 [label="X[8] <= 0.9319\ngini = 0.5\nsamples = 2\nvalue = [1, 1]"] ;
43 -> 45 ;
46 [label="gini = 0.0\nsamples = 1\nvalue = [0, 1]"] ;
45 -> 46 ;
47 [label="gini = 0.0\nsamples = 1\nvalue = [1, 0]"] ;
45 -> 47 ;
48 [label="X[5] <= 0.0972\ngini = 0.0015\nsamples = 1305\nvalue = [1304, 1]"] ;
42 -> 48 ;
49 [label="X[5] <= 0.0971\ngini = 0.0108\nsamples = 185\nvalue = [184, 1]"] ;
48 -> 49 ;
50 [label="gini = 0.0\nsamples = 184\nvalue = [184, 0]"] ;
49 -> 50 ;
51 [label="gini = 0.0\nsamples = 1\nvalue = [0, 1]"] ;
49 -> 51 ;
52 [label="gini = 0.0\nsamples = 1120\nvalue = [1120, 0]"] ;
48 -> 52 ;
53 [label="X[9] <= 0.7792\ngini = 0.0997\nsamples = 19\nvalue = [18, 1]"] ;
41 -> 53 ;
54 [label="gini = 0.0\nsamples = 1\nvalue = [0, 1]"] ;
53 -> 54 ;
55 [label="gini = 0.0\nsamples = 18\nvalue = [18, 0]"] ;
53 -> 55 ;
56 [label="gini = 0.0\nsamples = 1\nvalue = [0, 1]"] ;
32 -> 56 ;
57 [label="X[13] <= 0.0414\ngini = 0.2631\nsamples = 154\nvalue = [130, 24]"] ;
29 -> 57 ;
58 [label="X[4] <= 0.234\ngini = 0.4688\nsamples = 32\nvalue = [12, 20]"] ;
57 -> 58 ;
59 [label="X[6] <= 1.3641\ngini = 0.1884\nsamples = 19\nvalue = [2, 17]"] ;
58 -> 59 ;
60 [label="gini = 0.0\nsamples = 2\nvalue = [2, 0]"] ;
59 -> 60 ;
61 [label="gini = 0.0\nsamples = 17\nvalue = [0, 17]"] ;
59 -> 61 ;
62 [label="X[19] <= 0.253\ngini = 0.355\nsamples = 13\nvalue = [10, 3]"] ;
58 -> 62 ;
63 [label="gini = 0.0\nsamples = 7\nvalue = [7, 0]"] ;
62 -> 63 ;
64 [label="X[9] <= 0.5029\ngini = 0.5\nsamples = 6\nvalue = [3, 3]"] ;
62 -> 64 ;
65 [label="gini = 0.0\nsamples = 3\nvalue = [3, 0]"] ;
64 -> 65 ;
66 [label="gini = 0.0\nsamples = 3\nvalue = [0, 3]"] ;
64 -> 66 ;
67 [label="X[16] <= 0.1987\ngini = 0.0634\nsamples = 122\nvalue = [118, 4]"] ;
57 -> 67 ;
68 [label="X[3] <= 0.1502\ngini = 0.0484\nsamples = 121\nvalue = [118, 3]"] ;
67 -> 68 ;
69 [label="gini = 0.0\nsamples = 110\nvalue = [110, 0]"] ;
68 -> 69 ;
70 [label="X[3] <= 0.1514\ngini = 0.3967\nsamples = 11\nvalue = [8, 3]"] ;
68 -> 70 ;
71 [label="gini = 0.0\nsamples = 2\nvalue = [0, 2]"] ;
70 -> 71 ;
72 [label="X[4] <= 0.2516\ngini = 0.1975\nsamples = 9\nvalue = [8, 1]"] ;
70 -> 72 ;
73 [label="gini = 0.0\nsamples = 8\nvalue = [8, 0]"] ;
72 -> 73 ;
74 [label="gini = 0.0\nsamples = 1\nvalue = [0, 1]"] ;
72 -> 74 ;
75 [label="gini = 0.0\nsamples = 1\nvalue = [0, 1]"] ;
67 -> 75 ;
76 [label="X[12] <= 0.1476\ngini = 0.0696\nsamples = 1552\nvalue = [56, 1496]"] ;
0 -> 76 [labeldistance=2.5, labelangle=-45, headlabel="False"] ;
77 [label="X[5] <= 0.0706\ngini = 0.417\nsamples = 108\nvalue = [32, 76]"] ;
76 -> 77 ;
78 [label="X[12] <= 0.1473\ngini = 0.0624\nsamples = 62\nvalue = [2, 60]"] ;
77 -> 78 ;
79 [label="X[13] <= 0.0491\ngini = 0.0333\nsamples = 59\nvalue = [1, 58]"] ;
78 -> 79 ;
80 [label="gini = 0.0\nsamples = 56\nvalue = [0, 56]"] ;
79 -> 80 ;
81 [label="X[3] <= 0.1571\ngini = 0.4444\nsamples = 3\nvalue = [1, 2]"] ;
79 -> 81 ;
82 [label="gini = 0.0\nsamples = 1\nvalue = [1, 0]"] ;
81 -> 82 ;
83 [label="gini = 0.0\nsamples = 2\nvalue = [0, 2]"] ;
81 -> 83 ;
84 [label="X[4] <= 0.2101\ngini = 0.4444\nsamples = 3\nvalue = [1, 2]"] ;
78 -> 84 ;
85 [label="gini = 0.0\nsamples = 1\nvalue = [1, 0]"] ;
84 -> 85 ;
86 [label="gini = 0.0\nsamples = 2\nvalue = [0, 2]"] ;
84 -> 86 ;
87 [label="X[9] <= 0.5379\ngini = 0.4537\nsamples = 46\nvalue = [30, 16]"] ;
77 -> 87 ;
88 [label="X[1] <= 0.0523\ngini = 0.1244\nsamples = 30\nvalue = [28, 2]"] ;
87 -> 88 ;
89 [label="X[9] <= 0.1953\ngini = 0.4444\nsamples = 3\nvalue = [1, 2]"] ;
88 -> 89 ;
90 [label="gini = 0.0\nsamples = 1\nvalue = [1, 0]"] ;
89 -> 90 ;
91 [label="gini = 0.0\nsamples = 2\nvalue = [0, 2]"] ;
89 -> 91 ;
92 [label="gini = 0.0\nsamples = 27\nvalue = [27, 0]"] ;
88 -> 92 ;
93 [label="X[2] <= 0.1386\ngini = 0.2188\nsamples = 16\nvalue = [2, 14]"] ;
87 -> 93 ;
94 [label="X[7] <= 6.3894\ngini = 0.4444\nsamples = 3\nvalue = [2, 1]"] ;
93 -> 94 ;
95 [label="gini = 0.0\nsamples = 2\nvalue = [2, 0]"] ;
94 -> 95 ;
96 [label="gini = 0.0\nsamples = 1\nvalue = [0, 1]"] ;
94 -> 96 ;
97 [label="gini = 0.0\nsamples = 13\nvalue = [0, 13]"] ;
93 -> 97 ;
98 [label="X[11] <= 0.0783\ngini = 0.0327\nsamples = 1444\nvalue = [24, 1420]"] ;
76 -> 98 ;
99 [label="gini = 0.0\nsamples = 1\nvalue = [1, 0]"] ;
98 -> 99 ;
100 [label="X[8] <= 0.9076\ngini = 0.0314\nsamples = 1443\nvalue = [23, 1420]"] ;
98 -> 100 ;
101 [label="X[9] <= 0.0816\ngini = 0.0054\nsamples = 1107\nvalue = [3, 1104]"] ;
100 -> 101 ;
102 [label="X[3] <= 0.1939\ngini = 0.4444\nsamples = 3\nvalue = [1, 2]"] ;
101 -> 102 ;
103 [label="gini = 0.0\nsamples = 1\nvalue = [1, 0]"] ;
102 -> 103 ;
104 [label="gini = 0.0\nsamples = 2\nvalue = [0, 2]"] ;
102 -> 104 ;
105 [label="X[12] <= 0.148\ngini = 0.0036\nsamples = 1104\nvalue = [2, 1102]"] ;
101 -> 105 ;
106 [label="X[12] <= 0.148\ngini = 0.32\nsamples = 5\nvalue = [1, 4]"] ;
105 -> 106 ;
107 [label="gini = 0.0\nsamples = 4\nvalue = [0, 4]"] ;
106 -> 107 ;
108 [label="gini = 0.0\nsamples = 1\nvalue = [1, 0]"] ;
106 -> 108 ;
109 [label="X[10] <= 0.2771\ngini = 0.0018\nsamples = 1099\nvalue = [1, 1098]"] ;
105 -> 109 ;
110 [label="gini = 0.0\nsamples = 1089\nvalue = [0, 1089]"] ;
109 -> 110 ;
111 [label="X[5] <= 0.1045\ngini = 0.18\nsamples = 10\nvalue = [1, 9]"] ;
109 -> 111 ;
112 [label="gini = 0.0\nsamples = 9\nvalue = [0, 9]"] ;
111 -> 112 ;
113 [label="gini = 0.0\nsamples = 1\nvalue = [1, 0]"] ;
111 -> 113 ;
114 [label="X[18] <= 5.2891\ngini = 0.112\nsamples = 336\nvalue = [20, 316]"] ;
100 -> 114 ;
115 [label="X[12] <= 0.1495\ngini = 0.0228\nsamples = 260\nvalue = [3, 257]"] ;
114 -> 115 ;
116 [label="X[17] <= 4.1724\ngini = 0.2604\nsamples = 13\nvalue = [2, 11]"] ;
115 -> 116 ;
117 [label="gini = 0.0\nsamples = 11\nvalue = [0, 11]"] ;
116 -> 117 ;
118 [label="gini = 0.0\nsamples = 2\nvalue = [2, 0]"] ;
116 -> 118 ;
119 [label="X[5] <= 0.049\ngini = 0.0081\nsamples = 247\nvalue = [1, 246]"] ;
115 -> 119 ;
120 [label="X[2] <= 0.1974\ngini = 0.142\nsamples = 13\nvalue = [1, 12]"] ;
119 -> 120 ;
121 [label="gini = 0.0\nsamples = 12\nvalue = [0, 12]"] ;
120 -> 121 ;
122 [label="gini = 0.0\nsamples = 1\nvalue = [1, 0]"] ;
120 -> 122 ;
123 [label="gini = 0.0\nsamples = 234\nvalue = [0, 234]"] ;
119 -> 123 ;
124 [label="X[13] <= 0.0272\ngini = 0.3473\nsamples = 76\nvalue = [17, 59]"] ;
114 -> 124 ;
125 [label="X[14] <= 0.256\ngini = 0.4734\nsamples = 39\nvalue = [15, 24]"] ;
124 -> 125 ;
126 [label="X[8] <= 0.9137\ngini = 0.3457\nsamples = 9\nvalue = [7, 2]"] ;
125 -> 126 ;
127 [label="gini = 0.0\nsamples = 1\nvalue = [0, 1]"] ;
126 -> 127 ;
128 [label="X[17] <= 5.5273\ngini = 0.2188\nsamples = 8\nvalue = [7, 1]"] ;
126 -> 128 ;
129 [label="gini = 0.0\nsamples = 1\nvalue = [0, 1]"] ;
128 -> 129 ;
130 [label="gini = 0.0\nsamples = 7\nvalue = [7, 0]"] ;
128 -> 130 ;
131 [label="X[12] <= 0.1586\ngini = 0.3911\nsamples = 30\nvalue = [8, 22]"] ;
125 -> 131 ;
132 [label="gini = 0.0\nsamples = 10\nvalue = [0, 10]"] ;
131 -> 132 ;
133 [label="X[12] <= 0.1807\ngini = 0.48\nsamples = 20\nvalue = [8, 12]"] ;
131 -> 133 ;
134 [label="X[2] <= 0.1675\ngini = 0.4898\nsamples = 14\nvalue = [8, 6]"] ;
133 -> 134 ;
135 [label="X[15] <= 0.7364\ngini = 0.32\nsamples = 5\nvalue = [1, 4]"] ;
134 -> 135 ;
136 [label="gini = 0.0\nsamples = 1\nvalue = [1, 0]"] ;
135 -> 136 ;
137 [label="gini = 0.0\nsamples = 4\nvalue = [0, 4]"] ;
135 -> 137 ;
138 [label="X[15] <= 0.5873\ngini = 0.3457\nsamples = 9\nvalue = [7, 2]"] ;
134 -> 138 ;
139 [label="gini = 0.0\nsamples = 2\nvalue = [0, 2]"] ;
138 -> 139 ;
140 [label="gini = 0.0\nsamples = 7\nvalue = [7, 0]"] ;
138 -> 140 ;
141 [label="gini = 0.0\nsamples = 6\nvalue = [0, 6]"] ;
133 -> 141 ;
142 [label="X[10] <= 0.2592\ngini = 0.1023\nsamples = 37\nvalue = [2, 35]"] ;
124 -> 142 ;
143 [label="X[16] <= 0.168\ngini = 0.054\nsamples = 36\nvalue = [1, 35]"] ;
142 -> 143 ;
144 [label="gini = 0.0\nsamples = 33\nvalue = [0, 33]"] ;
143 -> 144 ;
145 [label="X[15] <= 1.576\ngini = 0.4444\nsamples = 3\nvalue = [1, 2]"] ;
143 -> 145 ;
146 [label="gini = 0.0\nsamples = 2\nvalue = [0, 2]"] ;
145 -> 146 ;
147 [label="gini = 0.0\nsamples = 1\nvalue = [1, 0]"] ;
145 -> 147 ;
148 [label="gini = 0.0\nsamples = 1\nvalue = [1, 0]"] ;
142 -> 148 ;
}